{"Current Epoch": 2, "CE Loss": 0.010440320707857609, "_timestamp": 1651907102, "_runtime": 1478, "_step": 571, "gradients/mlp2.bias": {"_type": "histogram", "values": [1.0, 1.0, 0.0, 0.0, 1.0, 0.0, 0.0, 0.0, 0.0, 0.0, 0.0, 0.0, 0.0, 0.0, 0.0, 0.0, 0.0, 0.0, 1.0, 1.0, 0.0, 1.0, 1.0, 0.0, 0.0, 0.0, 1.0, 0.0, 0.0, 0.0, 0.0, 0.0, 0.0, 1.0, 0.0, 0.0, 0.0, 0.0, 0.0, 0.0, 0.0, 0.0, 0.0, 0.0, 0.0, 0.0, 0.0, 0.0, 0.0, 0.0, 0.0, 0.0, 0.0, 0.0, 0.0, 0.0, 0.0, 0.0, 0.0, 0.0, 0.0, 0.0, 0.0, 1.0], "bins": [-0.00286993314512074, -0.0027347328141331673, -0.0025995324831455946, -0.002464332152158022, -0.002329132054001093, -0.0021939317230135202, -0.0020587313920259476, -0.001923531061038375, -0.001788330846466124, -0.0016531305154785514, -0.0015179303009063005, -0.0013827299699187279, -0.0012475296389311552, -0.0011123294243589044, -0.0009771290933713317, -0.0008419288205914199, -0.0007067285478115082, -0.0005715282750315964, -0.0004363279731478542, -0.000301127671264112, -0.00016592739848420024, -3.072712570428848e-05, 0.00010447320528328419, 0.00023967347806319594, 0.00037487386725842953, 0.0005100741400383413, 0.000645274412818253, 0.0007804747438058257, 0.0009156750165857375, 0.0010508752893656492, 0.001186075620353222, 0.0013212759513407946, 0.00145647581666708, 0.0015916761476546526, 0.0017268763622269034, 0.0018620766932144761, 0.001997276907786727, 0.0021324772387742996, 0.0022676775697618723, 0.002402877900749445, 0.002538077998906374, 0.0026732783298939466, 0.0028084786608815193, 0.0029436787590384483, 0.003078879090026021, 0.0032140794210135937, 0.0033492797520011663, 0.003484480082988739, 0.0036196804139763117, 0.0037548807449638844, 0.003890081075951457, 0.00402528140693903, 0.004160481505095959, 0.004295681603252888, 0.004430882167071104, 0.004566082265228033, 0.004701282829046249, 0.004836482927203178, 0.004971683491021395, 0.005106883589178324, 0.00524208415299654, 0.005377284251153469, 0.005512484349310398, 0.005647684913128614, 0.0057828850112855434]}, "gradients/mlp2.weight": {"_type": "histogram", "values": [2.0, 0.0, 0.0, 2.0, 2.0, 1.0, 1.0, 0.0, 0.0, 0.0, 1.0, 0.0, 0.0, 0.0, 0.0, 1.0, 1.0, 2.0, 3.0, 4.0, 2.0, 5.0, 2.0, 6.0, 5.0, 12.0, 12.0, 14.0, 18.0, 26.0, 724.0, 57.0, 19.0, 20.0, 11.0, 9.0, 4.0, 2.0, 4.0, 1.0, 2.0, 2.0, 3.0, 3.0, 2.0, 0.0, 2.0, 1.0, 2.0, 0.0, 1.0, 0.0, 0.0, 1.0, 0.0, 0.0, 2.0, 0.0, 2.0, 1.0, 0.0, 1.0, 1.0, 1.0], "bins": [-0.04701199010014534, -0.04548350349068642, -0.04395501688122749, -0.04242653399705887, -0.040898047387599945, -0.03936956077814102, -0.0378410741686821, -0.036312587559223175, -0.03478410094976425, -0.03325561434030533, -0.031727127730846405, -0.03019864298403263, -0.028670156374573708, -0.027141671627759933, -0.02561318501830101, -0.024084698408842087, -0.022556213662028313, -0.02102772705256939, -0.019499242305755615, -0.017970755696296692, -0.01644226908683777, -0.01491378340870142, -0.013385297730565071, -0.011856811121106148, -0.010328326374292374, -0.008799840696156025, -0.007271354086697102, -0.005742868408560753, -0.004214382264763117, -0.002685896120965481, -0.001157410442829132, 0.00037107616662979126, 0.0018995627760887146, 0.0034280489198863506, 0.004956535063683987, 0.006485020741820335, 0.008013507351279259, 0.009541993029415607, 0.011070478707551956, 0.01259896531701088, 0.014127451926469803, 0.015655938535928726, 0.0171844232827425, 0.018712909892201424, 0.020241396501660347, 0.02176988124847412, 0.023298367857933044, 0.024826854467391968, 0.026355339214205742, 0.027883825823664665, 0.02941231057047844, 0.030940797179937363, 0.032469283789396286, 0.03399777039885521, 0.035526253283023834, 0.03705473989248276, 0.03858322650194168, 0.040111713111400604, 0.04164019972085953, 0.04316868633031845, 0.044697169214487076, 0.046225655823946, 0.04775414243340492, 0.049282629042863846, 0.05081111565232277]}, "gradients/mlp1.bias": {"_type": "histogram", "values": [1.0, 0.0, 1.0, 0.0, 0.0, 0.0, 0.0, 0.0, 1.0, 0.0, 1.0, 0.0, 0.0, 3.0, 0.0, 0.0, 0.0, 0.0, 1.0, 2.0, 1.0, 1.0, 0.0, 3.0, 2.0, 3.0, 2.0, 0.0, 0.0, 2.0, 6.0, 4.0, 27.0, 11.0, 4.0, 4.0, 5.0, 0.0, 1.0, 1.0, 1.0, 1.0, 0.0, 1.0, 3.0, 1.0, 1.0, 1.0, 0.0, 0.0, 0.0, 0.0, 0.0, 0.0, 0.0, 0.0, 0.0, 1.0, 1.0, 0.0, 0.0, 1.0, 0.0, 1.0], "bins": [-0.0045195454731583595, -0.004381382372230291, -0.0042432197369635105, -0.004105056636035442, -0.003966893535107374, -0.0038287306670099497, -0.003690567798912525, -0.003552404697984457, -0.0034142418298870325, -0.003276078961789608, -0.00313791586086154, -0.0029997529927641153, -0.002861590124666691, -0.0027234270237386227, -0.002585264155641198, -0.0024471012875437737, -0.0023089381866157055, -0.002170775318518281, -0.002032612217590213, -0.0018944493494927883, -0.001756286364980042, -0.0016181233804672956, -0.0014799605123698711, -0.0013417975278571248, -0.0012036345433443785, -0.0010654715588316321, -0.0009273086325265467, -0.0007891457062214613, -0.000650982721708715, -0.0005128197371959686, -0.0003746568108908832, -0.0002364938845857978, -9.833136573433876e-05, 3.983158967457712e-05, 0.000177994545083493, 0.00031615750049240887, 0.00045432045590132475, 0.0005924834404140711, 0.0007306463667191565, 0.0008688092930242419, 0.0010069722775369883, 0.0011451352620497346, 0.001283298246562481, 0.0014214611146599054, 0.0015596240991726518, 0.001697787083685398, 0.0018359499517828226, 0.001974112819880247, 0.0021122759208083153, 0.00225043878890574, 0.002388601889833808, 0.0025267647579312325, 0.0026649278588593006, 0.002803090726956725, 0.0029412535950541496, 0.003079416695982218, 0.0032175795640796423, 0.003355742432177067, 0.003493905533105135, 0.0036320684012025595, 0.003770231269299984, 0.003908394370228052, 0.00404655747115612, 0.004184720106422901, 0.004322883207350969]}, "gradients/mlp1.weight": {"_type": "histogram", "values": [16.0, 18.0, 12.0, 7.0, 17.0, 34.0, 43.0, 7.0, 7.0, 11.0, 64.0, 26.0, 17.0, 93.0, 65.0, 56.0, 52.0, 106.0, 98.0, 160.0, 177.0, 264.0, 276.0, 401.0, 504.0, 445.0, 604.0, 1380.0, 64938.0, 4826.0, 1235.0, 602.0, 271.0, 174.0, 169.0, 163.0, 113.0, 123.0, 173.0, 86.0, 85.0, 33.0, 56.0, 44.0, 26.0, 17.0, 23.0, 19.0, 19.0, 19.0, 11.0, 57.0, 27.0, 6.0, 13.0, 10.0, 25.0, 29.0, 9.0, 8.0, 10.0, 10.0, 4.0, 7.0], "bins": [-0.004862408619374037, -0.004694379400461912, -0.0045263501815497875, -0.004358320962637663, -0.004190291278064251, -0.004022262059152126, -0.0038542328402400017, -0.003686203621327877, -0.0035181744024157524, -0.0033501451835036278, -0.003182115964591503, -0.003014086512848735, -0.0028460572939366102, -0.0026780280750244856, -0.0025099986232817173, -0.0023419694043695927, -0.002173940185457468, -0.0020059109665453434, -0.001837881631217897, -0.0016698522958904505, -0.0015018230769783258, -0.0013337938580662012, -0.0011657645227387547, -0.0009977351874113083, -0.0008297059684991837, -0.0006616766913793981, -0.0004936474142596126, -0.000325618137139827, -0.00015758886002004147, 1.0440417099744081e-05, 0.00017846969421952963, 0.0003464990295469761, 0.0005145277827978134, 0.000682557059917599, 0.0008505863370373845, 0.001018615672364831, 0.0011866448912769556, 0.0013546741101890802, 0.0015227034455165267, 0.0016907327808439732, 0.0018587619997560978, 0.0020267912186682224, 0.002194820437580347, 0.0023628498893231153, 0.00253087910823524, 0.0026989083271473646, 0.002866937778890133, 0.0030349669978022575, 0.003202996216714382, 0.003371025435626507, 0.0035390546545386314, 0.0037070841062813997, 0.0038751133251935244, 0.004043142776936293, 0.004211171995848417, 0.004379201214760542, 0.0045472304336726665, 0.004715259652584791, 0.004883288871496916, 0.0050513180904090405, 0.005219347774982452, 0.005387376993894577, 0.005555406212806702, 0.005723435431718826, 0.005891464650630951]}, "test accuracy": 0.9726}